digraph Tree {
node [shape=box, fontname="helvetica"] ;
edge [fontname="helvetica"] ;
0 [label="X[5] <= 0.5\ngini = 0.407\nsamples = 850\nvalue = [608, 242]"] ;
1 [label="X[36] <= 0.5\ngini = 0.271\nsamples = 674\nvalue = [565, 109]"] ;
0 -> 1 [labeldistance=2.5, labelangle=45, headlabel="True"] ;
2 [label="X[71] <= 0.5\ngini = 0.259\nsamples = 660\nvalue = [559, 101]"] ;
1 -> 2 ;
3 [label="X[1] <= 0.5\ngini = 0.254\nsamples = 657\nvalue = [559, 98]"] ;
2 -> 3 ;
4 [label="X[6] <= 0.5\ngini = 0.295\nsamples = 478\nvalue = [392, 86]"] ;
3 -> 4 ;
5 [label="X[84] <= 0.5\ngini = 0.249\nsamples = 377\nvalue = [322, 55]"] ;
4 -> 5 ;
6 [label="X[79] <= 0.5\ngini = 0.219\nsamples = 320\nvalue = [280, 40]"] ;
5 -> 6 ;
7 [label="X[22] <= 0.5\ngini = 0.192\nsamples = 289\nvalue = [258, 31]"] ;
6 -> 7 ;
8 [label="X[43] <= 0.5\ngini = 0.143\nsamples = 220\nvalue = [203, 17]"] ;
7 -> 8 ;
9 [label="X[47] <= 0.5\ngini = 0.135\nsamples = 219\nvalue = [203, 16]"] ;
8 -> 9 ;
10 [label="X[59] <= 0.5\ngini = 0.113\nsamples = 200\nvalue = [188, 12]"] ;
9 -> 10 ;
11 [label="X[67] <= 0.5\ngini = 0.105\nsamples = 198\nvalue = [187, 11]"] ;
10 -> 11 ;
12 [label="X[23] <= 0.5\ngini = 0.09\nsamples = 191\nvalue = [182, 9]"] ;
11 -> 12 ;
13 [label="X[62] <= 0.5\ngini = 0.061\nsamples = 158\nvalue = [153, 5]"] ;
12 -> 13 ;
14 [label="X[20] <= 0.5\ngini = 0.03\nsamples = 133\nvalue = [131, 2]"] ;
13 -> 14 ;
15 [label="gini = 0.0\nsamples = 85\nvalue = [85, 0]"] ;
14 -> 15 ;
16 [label="gini = 0.08\nsamples = 48\nvalue = [46, 2]"] ;
14 -> 16 ;
17 [label="gini = 0.211\nsamples = 25\nvalue = [22, 3]"] ;
13 -> 17 ;
18 [label="gini = 0.213\nsamples = 33\nvalue = [29, 4]"] ;
12 -> 18 ;
19 [label="gini = 0.408\nsamples = 7\nvalue = [5, 2]"] ;
11 -> 19 ;
20 [label="gini = 0.5\nsamples = 2\nvalue = [1, 1]"] ;
10 -> 20 ;
21 [label="gini = 0.332\nsamples = 19\nvalue = [15, 4]"] ;
9 -> 21 ;
22 [label="gini = 0.0\nsamples = 1\nvalue = [0, 1]"] ;
8 -> 22 ;
23 [label="X[11] <= 0.5\ngini = 0.323\nsamples = 69\nvalue = [55, 14]"] ;
7 -> 23 ;
24 [label="X[17] <= 0.5\ngini = 0.281\nsamples = 65\nvalue = [54, 11]"] ;
23 -> 24 ;
25 [label="gini = 0.165\nsamples = 44\nvalue = [40, 4]"] ;
24 -> 25 ;
26 [label="gini = 0.444\nsamples = 21\nvalue = [14, 7]"] ;
24 -> 26 ;
27 [label="gini = 0.375\nsamples = 4\nvalue = [1, 3]"] ;
23 -> 27 ;
28 [label="gini = 0.412\nsamples = 31\nvalue = [22, 9]"] ;
6 -> 28 ;
29 [label="X[14] <= 0.5\ngini = 0.388\nsamples = 57\nvalue = [42, 15]"] ;
5 -> 29 ;
30 [label="gini = 0.111\nsamples = 17\nvalue = [16, 1]"] ;
29 -> 30 ;
31 [label="gini = 0.455\nsamples = 40\nvalue = [26, 14]"] ;
29 -> 31 ;
32 [label="X[72] <= 0.5\ngini = 0.425\nsamples = 101\nvalue = [70, 31]"] ;
4 -> 32 ;
33 [label="X[3] <= 0.5\ngini = 0.454\nsamples = 89\nvalue = [58, 31]"] ;
32 -> 33 ;
34 [label="X[75] <= 0.5\ngini = 0.38\nsamples = 55\nvalue = [41, 14]"] ;
33 -> 34 ;
35 [label="X[4] <= 0.5\ngini = 0.334\nsamples = 52\nvalue = [41, 11]"] ;
34 -> 35 ;
36 [label="gini = 0.268\nsamples = 44\nvalue = [37, 7]"] ;
35 -> 36 ;
37 [label="gini = 0.5\nsamples = 8\nvalue = [4, 4]"] ;
35 -> 37 ;
38 [label="gini = 0.0\nsamples = 3\nvalue = [0, 3]"] ;
34 -> 38 ;
39 [label="gini = 0.5\nsamples = 34\nvalue = [17, 17]"] ;
33 -> 39 ;
40 [label="gini = 0.0\nsamples = 12\nvalue = [12, 0]"] ;
32 -> 40 ;
41 [label="X[40] <= 0.5\ngini = 0.125\nsamples = 179\nvalue = [167, 12]"] ;
3 -> 41 ;
42 [label="X[45] <= 0.5\ngini = 0.079\nsamples = 169\nvalue = [162, 7]"] ;
41 -> 42 ;
43 [label="X[52] <= 0.5\ngini = 0.069\nsamples = 168\nvalue = [162, 6]"] ;
42 -> 43 ;
44 [label="X[15] <= 0.5\ngini = 0.058\nsamples = 167\nvalue = [162, 5]"] ;
43 -> 44 ;
45 [label="X[21] <= 0.5\ngini = 0.048\nsamples = 164\nvalue = [160, 4]"] ;
44 -> 45 ;
46 [label="gini = 0.0\nsamples = 119\nvalue = [119, 0]"] ;
45 -> 46 ;
47 [label="gini = 0.162\nsamples = 45\nvalue = [41, 4]"] ;
45 -> 47 ;
48 [label="gini = 0.444\nsamples = 3\nvalue = [2, 1]"] ;
44 -> 48 ;
49 [label="gini = 0.0\nsamples = 1\nvalue = [0, 1]"] ;
43 -> 49 ;
50 [label="gini = 0.0\nsamples = 1\nvalue = [0, 1]"] ;
42 -> 50 ;
51 [label="gini = 0.5\nsamples = 10\nvalue = [5, 5]"] ;
41 -> 51 ;
52 [label="gini = 0.0\nsamples = 3\nvalue = [0, 3]"] ;
2 -> 52 ;
53 [label="gini = 0.49\nsamples = 14\nvalue = [6, 8]"] ;
1 -> 53 ;
54 [label="X[0] <= 0.5\ngini = 0.369\nsamples = 176\nvalue = [43, 133]"] ;
0 -> 54 [labeldistance=2.5, labelangle=-45, headlabel="False"] ;
55 [label="X[81] <= 0.5\ngini = 0.304\nsamples = 155\nvalue = [29, 126]"] ;
54 -> 55 ;
56 [label="X[47] <= 0.5\ngini = 0.249\nsamples = 144\nvalue = [21, 123]"] ;
55 -> 56 ;
57 [label="X[37] <= 0.5\ngini = 0.224\nsamples = 140\nvalue = [18, 122]"] ;
56 -> 57 ;
58 [label="X[11] <= 0.5\ngini = 0.205\nsamples = 138\nvalue = [16, 122]"] ;
57 -> 58 ;
59 [label="X[12] <= 0.5\ngini = 0.153\nsamples = 120\nvalue = [10, 110]"] ;
58 -> 59 ;
60 [label="X[13] <= 0.5\ngini = 0.045\nsamples = 87\nvalue = [2, 85]"] ;
59 -> 60 ;
61 [label="gini = 0.0\nsamples = 59\nvalue = [0, 59]"] ;
60 -> 61 ;
62 [label="gini = 0.133\nsamples = 28\nvalue = [2, 26]"] ;
60 -> 62 ;
63 [label="gini = 0.367\nsamples = 33\nvalue = [8, 25]"] ;
59 -> 63 ;
64 [label="gini = 0.444\nsamples = 18\nvalue = [6, 12]"] ;
58 -> 64 ;
65 [label="gini = 0.0\nsamples = 2\nvalue = [2, 0]"] ;
57 -> 65 ;
66 [label="gini = 0.375\nsamples = 4\nvalue = [3, 1]"] ;
56 -> 66 ;
67 [label="gini = 0.397\nsamples = 11\nvalue = [8, 3]"] ;
55 -> 67 ;
68 [label="gini = 0.444\nsamples = 21\nvalue = [14, 7]"] ;
54 -> 68 ;
}
