digraph Tree {
node [shape=box, fontname="helvetica"] ;
edge [fontname="helvetica"] ;
0 [label="X[16] <= 0.5\ngini = 0.402\nsamples = 850\nvalue = [613, 237]"] ;
1 [label="X[4] <= 0.5\ngini = 0.286\nsamples = 683\nvalue = [565, 118]"] ;
0 -> 1 [labeldistance=2.5, labelangle=45, headlabel="True"] ;
2 [label="X[3] <= 0.5\ngini = 0.252\nsamples = 616\nvalue = [525, 91]"] ;
1 -> 2 ;
3 [label="X[21] <= 0.5\ngini = 0.18\nsamples = 431\nvalue = [388, 43]"] ;
2 -> 3 ;
4 [label="X[10] <= 0.5\ngini = 0.171\nsamples = 424\nvalue = [384, 40]"] ;
3 -> 4 ;
5 [label="X[22] <= 0.5\ngini = 0.152\nsamples = 386\nvalue = [354, 32]"] ;
4 -> 5 ;
6 [label="X[12] <= 0.5\ngini = 0.139\nsamples = 373\nvalue = [345, 28]"] ;
5 -> 6 ;
7 [label="X[2] <= 0.5\ngini = 0.17\nsamples = 256\nvalue = [232, 24]"] ;
6 -> 7 ;
8 [label="X[25] <= 0.5\ngini = 0.12\nsamples = 125\nvalue = [117, 8]"] ;
7 -> 8 ;
9 [label="X[14] <= 0.5\ngini = 0.074\nsamples = 104\nvalue = [100, 4]"] ;
8 -> 9 ;
10 [label="X[6] <= 0.5\ngini = 0.041\nsamples = 95\nvalue = [93, 2]"] ;
9 -> 10 ;
11 [label="gini = 0.0\nsamples = 76\nvalue = [76, 0]"] ;
10 -> 11 ;
12 [label="gini = 0.188\nsamples = 19\nvalue = [17, 2]"] ;
10 -> 12 ;
13 [label="gini = 0.346\nsamples = 9\nvalue = [7, 2]"] ;
9 -> 13 ;
14 [label="gini = 0.308\nsamples = 21\nvalue = [17, 4]"] ;
8 -> 14 ;
15 [label="X[9] <= 0.5\ngini = 0.214\nsamples = 131\nvalue = [115, 16]"] ;
7 -> 15 ;
16 [label="X[8] <= 0.5\ngini = 0.188\nsamples = 114\nvalue = [102, 12]"] ;
15 -> 16 ;
17 [label="X[14] <= 0.5\ngini = 0.116\nsamples = 65\nvalue = [61, 4]"] ;
16 -> 17 ;
18 [label="X[23] <= 0.5\ngini = 0.092\nsamples = 62\nvalue = [59, 3]"] ;
17 -> 18 ;
19 [label="gini = 0.048\nsamples = 41\nvalue = [40, 1]"] ;
18 -> 19 ;
20 [label="gini = 0.172\nsamples = 21\nvalue = [19, 2]"] ;
18 -> 20 ;
21 [label="gini = 0.444\nsamples = 3\nvalue = [2, 1]"] ;
17 -> 21 ;
22 [label="gini = 0.273\nsamples = 49\nvalue = [41, 8]"] ;
16 -> 22 ;
23 [label="gini = 0.36\nsamples = 17\nvalue = [13, 4]"] ;
15 -> 23 ;
24 [label="X[20] <= 0.5\ngini = 0.066\nsamples = 117\nvalue = [113, 4]"] ;
6 -> 24 ;
25 [label="X[23] <= 0.5\ngini = 0.02\nsamples = 99\nvalue = [98, 1]"] ;
24 -> 25 ;
26 [label="gini = 0.0\nsamples = 73\nvalue = [73, 0]"] ;
25 -> 26 ;
27 [label="gini = 0.074\nsamples = 26\nvalue = [25, 1]"] ;
25 -> 27 ;
28 [label="gini = 0.278\nsamples = 18\nvalue = [15, 3]"] ;
24 -> 28 ;
29 [label="gini = 0.426\nsamples = 13\nvalue = [9, 4]"] ;
5 -> 29 ;
30 [label="gini = 0.332\nsamples = 38\nvalue = [30, 8]"] ;
4 -> 30 ;
31 [label="gini = 0.49\nsamples = 7\nvalue = [4, 3]"] ;
3 -> 31 ;
32 [label="X[17] <= 0.5\ngini = 0.384\nsamples = 185\nvalue = [137, 48]"] ;
2 -> 32 ;
33 [label="X[18] <= 0.5\ngini = 0.331\nsamples = 148\nvalue = [117, 31]"] ;
32 -> 33 ;
34 [label="X[25] <= 0.5\ngini = 0.24\nsamples = 79\nvalue = [68, 11]"] ;
33 -> 34 ;
35 [label="gini = 0.115\nsamples = 49\nvalue = [46, 3]"] ;
34 -> 35 ;
36 [label="gini = 0.391\nsamples = 30\nvalue = [22, 8]"] ;
34 -> 36 ;
37 [label="X[23] <= 0.5\ngini = 0.412\nsamples = 69\nvalue = [49, 20]"] ;
33 -> 37 ;
38 [label="X[25] <= 0.5\ngini = 0.379\nsamples = 63\nvalue = [47, 16]"] ;
37 -> 38 ;
39 [label="gini = 0.434\nsamples = 44\nvalue = [30, 14]"] ;
38 -> 39 ;
40 [label="gini = 0.188\nsamples = 19\nvalue = [17, 2]"] ;
38 -> 40 ;
41 [label="gini = 0.444\nsamples = 6\nvalue = [2, 4]"] ;
37 -> 41 ;
42 [label="gini = 0.497\nsamples = 37\nvalue = [20, 17]"] ;
32 -> 42 ;
43 [label="X[7] <= 0.5\ngini = 0.481\nsamples = 67\nvalue = [40, 27]"] ;
1 -> 43 ;
44 [label="X[9] <= 0.5\ngini = 0.458\nsamples = 62\nvalue = [40, 22]"] ;
43 -> 44 ;
45 [label="gini = 0.351\nsamples = 22\nvalue = [17, 5]"] ;
44 -> 45 ;
46 [label="gini = 0.489\nsamples = 40\nvalue = [23, 17]"] ;
44 -> 46 ;
47 [label="gini = 0.0\nsamples = 5\nvalue = [0, 5]"] ;
43 -> 47 ;
48 [label="X[0] <= 0.5\ngini = 0.41\nsamples = 167\nvalue = [48, 119]"] ;
0 -> 48 [labeldistance=2.5, labelangle=-45, headlabel="False"] ;
49 [label="X[21] <= 0.5\ngini = 0.354\nsamples = 152\nvalue = [35, 117]"] ;
48 -> 49 ;
50 [label="X[6] <= 0.5\ngini = 0.331\nsamples = 148\nvalue = [31, 117]"] ;
49 -> 50 ;
51 [label="X[14] <= 0.5\ngini = 0.264\nsamples = 128\nvalue = [20, 108]"] ;
50 -> 51 ;
52 [label="X[3] <= 0.5\ngini = 0.237\nsamples = 124\nvalue = [17, 107]"] ;
51 -> 52 ;
53 [label="X[9] <= 0.5\ngini = 0.292\nsamples = 79\nvalue = [14, 65]"] ;
52 -> 53 ;
54 [label="X[4] <= 0.5\ngini = 0.327\nsamples = 68\nvalue = [14, 54]"] ;
53 -> 54 ;
55 [label="X[2] <= 0.5\ngini = 0.274\nsamples = 55\nvalue = [9, 46]"] ;
54 -> 55 ;
56 [label="gini = 0.117\nsamples = 16\nvalue = [1, 15]"] ;
55 -> 56 ;
57 [label="gini = 0.326\nsamples = 39\nvalue = [8, 31]"] ;
55 -> 57 ;
58 [label="gini = 0.473\nsamples = 13\nvalue = [5, 8]"] ;
54 -> 58 ;
59 [label="gini = 0.0\nsamples = 11\nvalue = [0, 11]"] ;
53 -> 59 ;
60 [label="gini = 0.124\nsamples = 45\nvalue = [3, 42]"] ;
52 -> 60 ;
61 [label="gini = 0.375\nsamples = 4\nvalue = [3, 1]"] ;
51 -> 61 ;
62 [label="gini = 0.495\nsamples = 20\nvalue = [11, 9]"] ;
50 -> 62 ;
63 [label="gini = 0.0\nsamples = 4\nvalue = [4, 0]"] ;
49 -> 63 ;
64 [label="gini = 0.231\nsamples = 15\nvalue = [13, 2]"] ;
48 -> 64 ;
}
