digraph Tree {
node [shape=box, fontname="helvetica"] ;
edge [fontname="helvetica"] ;
0 [label="X[7] <= 1.5\ngini = 0.431\nsamples = 850\nvalue = [583, 267]"] ;
1 [label="X[5] <= 1.5\ngini = 0.326\nsamples = 185\nvalue = [38, 147]"] ;
0 -> 1 [labeldistance=2.5, labelangle=45, headlabel="True"] ;
2 [label="X[4] <= 1.5\ngini = 0.148\nsamples = 149\nvalue = [12, 137]"] ;
1 -> 2 ;
3 [label="gini = 0.49\nsamples = 14\nvalue = [6, 8]"] ;
2 -> 3 ;
4 [label="X[2] <= 2.95\ngini = 0.085\nsamples = 135\nvalue = [6, 129]"] ;
2 -> 4 ;
5 [label="gini = 0.444\nsamples = 3\nvalue = [1, 2]"] ;
4 -> 5 ;
6 [label="X[6] <= 0.5\ngini = 0.073\nsamples = 132\nvalue = [5, 127]"] ;
4 -> 6 ;
7 [label="X[2] <= 3.375\ngini = 0.062\nsamples = 124\nvalue = [4, 120]"] ;
6 -> 7 ;
8 [label="gini = 0.142\nsamples = 26\nvalue = [2, 24]"] ;
7 -> 8 ;
9 [label="X[4] <= 3.5\ngini = 0.04\nsamples = 98\nvalue = [2, 96]"] ;
7 -> 9 ;
10 [label="gini = 0.1\nsamples = 38\nvalue = [2, 36]"] ;
9 -> 10 ;
11 [label="gini = 0.0\nsamples = 60\nvalue = [0, 60]"] ;
9 -> 11 ;
12 [label="gini = 0.219\nsamples = 8\nvalue = [1, 7]"] ;
6 -> 12 ;
13 [label="gini = 0.401\nsamples = 36\nvalue = [26, 10]"] ;
1 -> 13 ;
14 [label="X[4] <= 3.5\ngini = 0.296\nsamples = 665\nvalue = [545, 120]"] ;
0 -> 14 [labeldistance=2.5, labelangle=-45, headlabel="False"] ;
15 [label="X[6] <= 0.5\ngini = 0.204\nsamples = 443\nvalue = [392, 51]"] ;
14 -> 15 ;
16 [label="X[7] <= 2.5\ngini = 0.177\nsamples = 417\nvalue = [376, 41]"] ;
15 -> 16 ;
17 [label="X[8] <= 3.5\ngini = 0.308\nsamples = 84\nvalue = [68, 16]"] ;
16 -> 17 ;
18 [label="X[0] <= 0.5\ngini = 0.038\nsamples = 51\nvalue = [50, 1]"] ;
17 -> 18 ;
19 [label="gini = 0.0\nsamples = 41\nvalue = [41, 0]"] ;
18 -> 19 ;
20 [label="gini = 0.18\nsamples = 10\nvalue = [9, 1]"] ;
18 -> 20 ;
21 [label="gini = 0.496\nsamples = 33\nvalue = [18, 15]"] ;
17 -> 21 ;
22 [label="X[2] <= 3.775\ngini = 0.139\nsamples = 333\nvalue = [308, 25]"] ;
16 -> 22 ;
23 [label="X[5] <= 3.5\ngini = 0.115\nsamples = 309\nvalue = [290, 19]"] ;
22 -> 23 ;
24 [label="X[8] <= 3.5\ngini = 0.151\nsamples = 195\nvalue = [179, 16]"] ;
23 -> 24 ;
25 [label="X[0] <= 0.5\ngini = 0.091\nsamples = 105\nvalue = [100, 5]"] ;
24 -> 25 ;
26 [label="X[2] <= 3.25\ngini = 0.049\nsamples = 79\nvalue = [77, 2]"] ;
25 -> 26 ;
27 [label="gini = 0.153\nsamples = 24\nvalue = [22, 2]"] ;
26 -> 27 ;
28 [label="gini = 0.0\nsamples = 55\nvalue = [55, 0]"] ;
26 -> 28 ;
29 [label="gini = 0.204\nsamples = 26\nvalue = [23, 3]"] ;
25 -> 29 ;
30 [label="X[3] <= 0.5\ngini = 0.215\nsamples = 90\nvalue = [79, 11]"] ;
24 -> 30 ;
31 [label="gini = 0.49\nsamples = 7\nvalue = [4, 3]"] ;
30 -> 31 ;
32 [label="X[2] <= 3.475\ngini = 0.174\nsamples = 83\nvalue = [75, 8]"] ;
30 -> 32 ;
33 [label="gini = 0.301\nsamples = 38\nvalue = [31, 7]"] ;
32 -> 33 ;
34 [label="gini = 0.043\nsamples = 45\nvalue = [44, 1]"] ;
32 -> 34 ;
35 [label="X[3] <= 3.5\ngini = 0.051\nsamples = 114\nvalue = [111, 3]"] ;
23 -> 35 ;
36 [label="X[2] <= 3.64\ngini = 0.036\nsamples = 110\nvalue = [108, 2]"] ;
35 -> 36 ;
37 [label="gini = 0.0\nsamples = 92\nvalue = [92, 0]"] ;
36 -> 37 ;
38 [label="gini = 0.198\nsamples = 18\nvalue = [16, 2]"] ;
36 -> 38 ;
39 [label="gini = 0.375\nsamples = 4\nvalue = [3, 1]"] ;
35 -> 39 ;
40 [label="gini = 0.375\nsamples = 24\nvalue = [18, 6]"] ;
22 -> 40 ;
41 [label="gini = 0.473\nsamples = 26\nvalue = [16, 10]"] ;
15 -> 41 ;
42 [label="X[5] <= 2.5\ngini = 0.428\nsamples = 222\nvalue = [153, 69]"] ;
14 -> 42 ;
43 [label="X[3] <= 1.5\ngini = 0.492\nsamples = 73\nvalue = [32, 41]"] ;
42 -> 43 ;
44 [label="X[1] <= 3.5\ngini = 0.497\nsamples = 50\nvalue = [27, 23]"] ;
43 -> 44 ;
45 [label="gini = 0.305\nsamples = 16\nvalue = [13, 3]"] ;
44 -> 45 ;
46 [label="gini = 0.484\nsamples = 34\nvalue = [14, 20]"] ;
44 -> 46 ;
47 [label="gini = 0.34\nsamples = 23\nvalue = [5, 18]"] ;
43 -> 47 ;
48 [label="X[8] <= 4.5\ngini = 0.305\nsamples = 149\nvalue = [121, 28]"] ;
42 -> 48 ;
49 [label="X[8] <= 3.5\ngini = 0.226\nsamples = 100\nvalue = [87, 13]"] ;
48 -> 49 ;
50 [label="gini = 0.404\nsamples = 32\nvalue = [23, 9]"] ;
49 -> 50 ;
51 [label="X[1] <= 2.5\ngini = 0.111\nsamples = 68\nvalue = [64, 4]"] ;
49 -> 51 ;
52 [label="gini = 0.32\nsamples = 15\nvalue = [12, 3]"] ;
51 -> 52 ;
53 [label="X[2] <= 3.15\ngini = 0.037\nsamples = 53\nvalue = [52, 1]"] ;
51 -> 53 ;
54 [label="gini = 0.245\nsamples = 7\nvalue = [6, 1]"] ;
53 -> 54 ;
55 [label="gini = 0.0\nsamples = 46\nvalue = [46, 0]"] ;
53 -> 55 ;
56 [label="gini = 0.425\nsamples = 49\nvalue = [34, 15]"] ;
48 -> 56 ;
}
