digraph Tree {
node [shape=box, fontname="helvetica"] ;
edge [fontname="helvetica"] ;
0 [label="X[12] <= 0.5\ngini = 0.417\nsamples = 964\nvalue = [678, 286]"] ;
1 [label="X[70] <= 0.5\ngini = 0.268\nsamples = 679\nvalue = [571, 108]"] ;
0 -> 1 [labeldistance=2.5, labelangle=45, headlabel="True"] ;
2 [label="X[46] <= 0.5\ngini = 0.257\nsamples = 667\nvalue = [566, 101]"] ;
1 -> 2 ;
3 [label="X[13] <= 0.5\ngini = 0.244\nsamples = 648\nvalue = [556, 92]"] ;
2 -> 3 ;
4 [label="X[25] <= 0.5\ngini = 0.188\nsamples = 466\nvalue = [417, 49]"] ;
3 -> 4 ;
5 [label="X[44] <= 0.5\ngini = 0.167\nsamples = 435\nvalue = [395, 40]"] ;
4 -> 5 ;
6 [label="X[87] <= 0.5\ngini = 0.148\nsamples = 409\nvalue = [376, 33]"] ;
5 -> 6 ;
7 [label="X[95] <= 0.5\ngini = 0.145\nsamples = 408\nvalue = [376, 32]"] ;
6 -> 7 ;
8 [label="X[22] <= 0.5\ngini = 0.141\nsamples = 407\nvalue = [376, 31]"] ;
7 -> 8 ;
9 [label="X[113] <= 0.5\ngini = 0.176\nsamples = 298\nvalue = [269, 29]"] ;
8 -> 9 ;
10 [label="X[15] <= 0.5\ngini = 0.242\nsamples = 149\nvalue = [128, 21]"] ;
9 -> 10 ;
11 [label="X[2] <= 0.5\ngini = 0.365\nsamples = 75\nvalue = [57, 18]"] ;
10 -> 11 ;
12 [label="X[50] <= 0.5\ngini = 0.255\nsamples = 60\nvalue = [51, 9]"] ;
11 -> 12 ;
13 [label="X[90] <= 0.5\ngini = 0.215\nsamples = 57\nvalue = [50, 7]"] ;
12 -> 13 ;
14 [label="X[120] <= 0.5\ngini = 0.191\nsamples = 56\nvalue = [50, 6]"] ;
13 -> 14 ;
15 [label="gini = 0.115\nsamples = 49\nvalue = [46, 3]"] ;
14 -> 15 ;
16 [label="gini = 0.49\nsamples = 7\nvalue = [4, 3]"] ;
14 -> 16 ;
17 [label="gini = 0.0\nsamples = 1\nvalue = [0, 1]"] ;
13 -> 17 ;
18 [label="gini = 0.444\nsamples = 3\nvalue = [1, 2]"] ;
12 -> 18 ;
19 [label="gini = 0.48\nsamples = 15\nvalue = [6, 9]"] ;
11 -> 19 ;
20 [label="X[75] <= 0.5\ngini = 0.078\nsamples = 74\nvalue = [71, 3]"] ;
10 -> 20 ;
21 [label="X[61] <= 0.5\ngini = 0.053\nsamples = 73\nvalue = [71, 2]"] ;
20 -> 21 ;
22 [label="X[73] <= 0.5\ngini = 0.029\nsamples = 67\nvalue = [66, 1]"] ;
21 -> 22 ;
23 [label="gini = 0.0\nsamples = 54\nvalue = [54, 0]"] ;
22 -> 23 ;
24 [label="gini = 0.142\nsamples = 13\nvalue = [12, 1]"] ;
22 -> 24 ;
25 [label="gini = 0.278\nsamples = 6\nvalue = [5, 1]"] ;
21 -> 25 ;
26 [label="gini = 0.0\nsamples = 1\nvalue = [0, 1]"] ;
20 -> 26 ;
27 [label="X[41] <= 0.5\ngini = 0.102\nsamples = 149\nvalue = [141, 8]"] ;
9 -> 27 ;
28 [label="X[64] <= 0.5\ngini = 0.09\nsamples = 148\nvalue = [141, 7]"] ;
27 -> 28 ;
29 [label="X[73] <= 0.5\ngini = 0.079\nsamples = 145\nvalue = [139, 6]"] ;
28 -> 29 ;
30 [label="X[90] <= 0.5\ngini = 0.058\nsamples = 134\nvalue = [130, 4]"] ;
29 -> 30 ;
31 [label="X[78] <= 0.5\ngini = 0.033\nsamples = 121\nvalue = [119, 2]"] ;
30 -> 31 ;
32 [label="X[117] <= 0.5\ngini = 0.017\nsamples = 116\nvalue = [115, 1]"] ;
31 -> 32 ;
33 [label="gini = 0.0\nsamples = 110\nvalue = [110, 0]"] ;
32 -> 33 ;
34 [label="gini = 0.278\nsamples = 6\nvalue = [5, 1]"] ;
32 -> 34 ;
35 [label="gini = 0.32\nsamples = 5\nvalue = [4, 1]"] ;
31 -> 35 ;
36 [label="gini = 0.26\nsamples = 13\nvalue = [11, 2]"] ;
30 -> 36 ;
37 [label="gini = 0.298\nsamples = 11\nvalue = [9, 2]"] ;
29 -> 37 ;
38 [label="gini = 0.444\nsamples = 3\nvalue = [2, 1]"] ;
28 -> 38 ;
39 [label="gini = 0.0\nsamples = 1\nvalue = [0, 1]"] ;
27 -> 39 ;
40 [label="X[57] <= 0.5\ngini = 0.036\nsamples = 109\nvalue = [107, 2]"] ;
8 -> 40 ;
41 [label="gini = 0.0\nsamples = 103\nvalue = [103, 0]"] ;
40 -> 41 ;
42 [label="gini = 0.444\nsamples = 6\nvalue = [4, 2]"] ;
40 -> 42 ;
43 [label="gini = 0.0\nsamples = 1\nvalue = [0, 1]"] ;
7 -> 43 ;
44 [label="gini = 0.0\nsamples = 1\nvalue = [0, 1]"] ;
6 -> 44 ;
45 [label="gini = 0.393\nsamples = 26\nvalue = [19, 7]"] ;
5 -> 45 ;
46 [label="gini = 0.412\nsamples = 31\nvalue = [22, 9]"] ;
4 -> 46 ;
47 [label="X[24] <= 0.5\ngini = 0.361\nsamples = 182\nvalue = [139, 43]"] ;
3 -> 47 ;
48 [label="X[86] <= 0.5\ngini = 0.225\nsamples = 116\nvalue = [101, 15]"] ;
47 -> 48 ;
49 [label="X[38] <= 0.5\ngini = 0.191\nsamples = 112\nvalue = [100, 12]"] ;
48 -> 49 ;
50 [label="X[10] <= 0.5\ngini = 0.165\nsamples = 110\nvalue = [100, 10]"] ;
49 -> 50 ;
51 [label="X[61] <= 0.5\ngini = 0.152\nsamples = 109\nvalue = [100, 9]"] ;
50 -> 51 ;
52 [label="X[26] <= 0.5\ngini = 0.098\nsamples = 97\nvalue = [92, 5]"] ;
51 -> 52 ;
53 [label="X[50] <= 0.5\ngini = 0.062\nsamples = 93\nvalue = [90, 3]"] ;
52 -> 53 ;
54 [label="X[31] <= 0.5\ngini = 0.043\nsamples = 91\nvalue = [89, 2]"] ;
53 -> 54 ;
55 [label="X[90] <= 0.5\ngini = 0.022\nsamples = 90\nvalue = [89, 1]"] ;
54 -> 55 ;
56 [label="gini = 0.0\nsamples = 79\nvalue = [79, 0]"] ;
55 -> 56 ;
57 [label="gini = 0.165\nsamples = 11\nvalue = [10, 1]"] ;
55 -> 57 ;
58 [label="gini = 0.0\nsamples = 1\nvalue = [0, 1]"] ;
54 -> 58 ;
59 [label="gini = 0.5\nsamples = 2\nvalue = [1, 1]"] ;
53 -> 59 ;
60 [label="gini = 0.5\nsamples = 4\nvalue = [2, 2]"] ;
52 -> 60 ;
61 [label="gini = 0.444\nsamples = 12\nvalue = [8, 4]"] ;
51 -> 61 ;
62 [label="gini = 0.0\nsamples = 1\nvalue = [0, 1]"] ;
50 -> 62 ;
63 [label="gini = 0.0\nsamples = 2\nvalue = [0, 2]"] ;
49 -> 63 ;
64 [label="gini = 0.375\nsamples = 4\nvalue = [1, 3]"] ;
48 -> 64 ;
65 [label="X[34] <= 0.5\ngini = 0.489\nsamples = 66\nvalue = [38, 28]"] ;
47 -> 65 ;
66 [label="gini = 0.271\nsamples = 31\nvalue = [26, 5]"] ;
65 -> 66 ;
67 [label="gini = 0.451\nsamples = 35\nvalue = [12, 23]"] ;
65 -> 67 ;
68 [label="gini = 0.499\nsamples = 19\nvalue = [10, 9]"] ;
2 -> 68 ;
69 [label="gini = 0.486\nsamples = 12\nvalue = [5, 7]"] ;
1 -> 69 ;
70 [label="X[35] <= 0.5\ngini = 0.469\nsamples = 285\nvalue = [107, 178]"] ;
0 -> 70 [labeldistance=2.5, labelangle=-45, headlabel="False"] ;
71 [label="X[113] <= 0.5\ngini = 0.5\nsamples = 181\nvalue = [90, 91]"] ;
70 -> 71 ;
72 [label="X[20] <= 0.5\ngini = 0.491\nsamples = 153\nvalue = [87, 66]"] ;
71 -> 72 ;
73 [label="X[24] <= 0.5\ngini = 0.43\nsamples = 83\nvalue = [57, 26]"] ;
72 -> 73 ;
74 [label="X[121] <= 0.5\ngini = 0.354\nsamples = 61\nvalue = [47, 14]"] ;
73 -> 74 ;
75 [label="X[120] <= 0.5\ngini = 0.293\nsamples = 56\nvalue = [46, 10]"] ;
74 -> 75 ;
76 [label="X[56] <= 0.5\ngini = 0.233\nsamples = 52\nvalue = [45, 7]"] ;
75 -> 76 ;
77 [label="X[91] <= 0.5\ngini = 0.18\nsamples = 50\nvalue = [45, 5]"] ;
76 -> 77 ;
78 [label="gini = 0.15\nsamples = 49\nvalue = [45, 4]"] ;
77 -> 78 ;
79 [label="gini = 0.0\nsamples = 1\nvalue = [0, 1]"] ;
77 -> 79 ;
80 [label="gini = 0.0\nsamples = 2\nvalue = [0, 2]"] ;
76 -> 80 ;
81 [label="gini = 0.375\nsamples = 4\nvalue = [1, 3]"] ;
75 -> 81 ;
82 [label="gini = 0.32\nsamples = 5\nvalue = [1, 4]"] ;
74 -> 82 ;
83 [label="gini = 0.496\nsamples = 22\nvalue = [10, 12]"] ;
73 -> 83 ;
84 [label="X[6] <= 0.5\ngini = 0.49\nsamples = 70\nvalue = [30, 40]"] ;
72 -> 84 ;
85 [label="X[24] <= 0.5\ngini = 0.5\nsamples = 55\nvalue = [28, 27]"] ;
84 -> 85 ;
86 [label="gini = 0.489\nsamples = 47\nvalue = [27, 20]"] ;
85 -> 86 ;
87 [label="gini = 0.219\nsamples = 8\nvalue = [1, 7]"] ;
85 -> 87 ;
88 [label="gini = 0.231\nsamples = 15\nvalue = [2, 13]"] ;
84 -> 88 ;
89 [label="gini = 0.191\nsamples = 28\nvalue = [3, 25]"] ;
71 -> 89 ;
90 [label="X[53] <= 0.5\ngini = 0.273\nsamples = 104\nvalue = [17, 87]"] ;
70 -> 90 ;
91 [label="X[38] <= 0.5\ngini = 0.239\nsamples = 101\nvalue = [14, 87]"] ;
90 -> 91 ;
92 [label="X[22] <= 0.5\ngini = 0.199\nsamples = 98\nvalue = [11, 87]"] ;
91 -> 92 ;
93 [label="X[21] <= 0.5\ngini = 0.13\nsamples = 86\nvalue = [6, 80]"] ;
92 -> 93 ;
94 [label="X[98] <= 0.5\ngini = 0.071\nsamples = 81\nvalue = [3, 78]"] ;
93 -> 94 ;
95 [label="X[19] <= 0.5\ngini = 0.049\nsamples = 80\nvalue = [2, 78]"] ;
94 -> 95 ;
96 [label="X[117] <= 0.5\ngini = 0.026\nsamples = 75\nvalue = [1, 74]"] ;
95 -> 96 ;
97 [label="gini = 0.0\nsamples = 69\nvalue = [0, 69]"] ;
96 -> 97 ;
98 [label="gini = 0.278\nsamples = 6\nvalue = [1, 5]"] ;
96 -> 98 ;
99 [label="gini = 0.32\nsamples = 5\nvalue = [1, 4]"] ;
95 -> 99 ;
100 [label="gini = 0.0\nsamples = 1\nvalue = [1, 0]"] ;
94 -> 100 ;
101 [label="gini = 0.48\nsamples = 5\nvalue = [3, 2]"] ;
93 -> 101 ;
102 [label="gini = 0.486\nsamples = 12\nvalue = [5, 7]"] ;
92 -> 102 ;
103 [label="gini = 0.0\nsamples = 3\nvalue = [3, 0]"] ;
91 -> 103 ;
104 [label="gini = 0.0\nsamples = 3\nvalue = [3, 0]"] ;
90 -> 104 ;
}
