digraph Tree {
node [shape=box, fontname="helvetica"] ;
edge [fontname="helvetica"] ;
0 [label="X[11] <= 0.5\ngini = 0.414\nsamples = 850\nvalue = [601, 249]"] ;
1 [label="X[20] <= 0.5\ngini = 0.301\nsamples = 676\nvalue = [551, 125]"] ;
0 -> 1 [labeldistance=2.5, labelangle=45, headlabel="True"] ;
2 [label="X[72] <= 0.5\ngini = 0.261\nsamples = 634\nvalue = [536, 98]"] ;
1 -> 2 ;
3 [label="X[85] <= 0.5\ngini = 0.256\nsamples = 631\nvalue = [536, 95]"] ;
2 -> 3 ;
4 [label="X[5] <= 0.5\ngini = 0.248\nsamples = 626\nvalue = [535, 91]"] ;
3 -> 4 ;
5 [label="X[19] <= 0.5\ngini = 0.229\nsamples = 577\nvalue = [501, 76]"] ;
4 -> 5 ;
6 [label="X[66] <= 0.5\ngini = 0.18\nsamples = 401\nvalue = [361, 40]"] ;
5 -> 6 ;
7 [label="X[60] <= 0.5\ngini = 0.169\nsamples = 396\nvalue = [359, 37]"] ;
6 -> 7 ;
8 [label="X[46] <= 0.5\ngini = 0.162\nsamples = 393\nvalue = [358, 35]"] ;
7 -> 8 ;
9 [label="X[1] <= 0.5\ngini = 0.153\nsamples = 384\nvalue = [352, 32]"] ;
8 -> 9 ;
10 [label="X[90] <= 0.5\ngini = 0.14\nsamples = 369\nvalue = [341, 28]"] ;
9 -> 10 ;
11 [label="X[9] <= 0.5\ngini = 0.114\nsamples = 331\nvalue = [311, 20]"] ;
10 -> 11 ;
12 [label="X[83] <= 0.5\ngini = 0.096\nsamples = 318\nvalue = [302, 16]"] ;
11 -> 12 ;
13 [label="X[25] <= 0.5\ngini = 0.081\nsamples = 307\nvalue = [294, 13]"] ;
12 -> 13 ;
14 [label="X[52] <= 0.5\ngini = 0.052\nsamples = 261\nvalue = [254, 7]"] ;
13 -> 14 ;
15 [label="X[8] <= 0.5\ngini = 0.045\nsamples = 259\nvalue = [253, 6]"] ;
14 -> 15 ;
16 [label="X[28] <= 0.5\ngini = 0.025\nsamples = 237\nvalue = [234, 3]"] ;
15 -> 16 ;
17 [label="gini = 0.0\nsamples = 157\nvalue = [157, 0]"] ;
16 -> 17 ;
18 [label="X[39] <= 0.5\ngini = 0.072\nsamples = 80\nvalue = [77, 3]"] ;
16 -> 18 ;
19 [label="X[88] <= 0.5\ngini = 0.051\nsamples = 76\nvalue = [74, 2]"] ;
18 -> 19 ;
20 [label="X[62] <= 0.5\ngini = 0.028\nsamples = 71\nvalue = [70, 1]"] ;
19 -> 20 ;
21 [label="gini = 0.0\nsamples = 45\nvalue = [45, 0]"] ;
20 -> 21 ;
22 [label="gini = 0.074\nsamples = 26\nvalue = [25, 1]"] ;
20 -> 22 ;
23 [label="gini = 0.32\nsamples = 5\nvalue = [4, 1]"] ;
19 -> 23 ;
24 [label="gini = 0.375\nsamples = 4\nvalue = [3, 1]"] ;
18 -> 24 ;
25 [label="gini = 0.236\nsamples = 22\nvalue = [19, 3]"] ;
15 -> 25 ;
26 [label="gini = 0.5\nsamples = 2\nvalue = [1, 1]"] ;
14 -> 26 ;
27 [label="gini = 0.227\nsamples = 46\nvalue = [40, 6]"] ;
13 -> 27 ;
28 [label="gini = 0.397\nsamples = 11\nvalue = [8, 3]"] ;
12 -> 28 ;
29 [label="gini = 0.426\nsamples = 13\nvalue = [9, 4]"] ;
11 -> 29 ;
30 [label="gini = 0.332\nsamples = 38\nvalue = [30, 8]"] ;
10 -> 30 ;
31 [label="gini = 0.391\nsamples = 15\nvalue = [11, 4]"] ;
9 -> 31 ;
32 [label="gini = 0.444\nsamples = 9\nvalue = [6, 3]"] ;
8 -> 32 ;
33 [label="gini = 0.444\nsamples = 3\nvalue = [1, 2]"] ;
7 -> 33 ;
34 [label="gini = 0.48\nsamples = 5\nvalue = [2, 3]"] ;
6 -> 34 ;
35 [label="X[12] <= 0.5\ngini = 0.325\nsamples = 176\nvalue = [140, 36]"] ;
5 -> 35 ;
36 [label="X[73] <= 0.5\ngini = 0.268\nsamples = 138\nvalue = [116, 22]"] ;
35 -> 36 ;
37 [label="X[15] <= 0.5\ngini = 0.251\nsamples = 136\nvalue = [116, 20]"] ;
36 -> 37 ;
38 [label="X[29] <= 0.5\ngini = 0.291\nsamples = 113\nvalue = [93, 20]"] ;
37 -> 38 ;
39 [label="X[2] <= 0.5\ngini = 0.349\nsamples = 80\nvalue = [62, 18]"] ;
38 -> 39 ;
40 [label="X[25] <= 0.5\ngini = 0.32\nsamples = 75\nvalue = [60, 15]"] ;
39 -> 40 ;
41 [label="X[83] <= 0.5\ngini = 0.238\nsamples = 58\nvalue = [50, 8]"] ;
40 -> 41 ;
42 [label="X[13] <= 0.5\ngini = 0.191\nsamples = 56\nvalue = [50, 6]"] ;
41 -> 42 ;
43 [label="gini = 0.42\nsamples = 10\nvalue = [7, 3]"] ;
42 -> 43 ;
44 [label="gini = 0.122\nsamples = 46\nvalue = [43, 3]"] ;
42 -> 44 ;
45 [label="gini = 0.0\nsamples = 2\nvalue = [0, 2]"] ;
41 -> 45 ;
46 [label="gini = 0.484\nsamples = 17\nvalue = [10, 7]"] ;
40 -> 46 ;
47 [label="gini = 0.48\nsamples = 5\nvalue = [2, 3]"] ;
39 -> 47 ;
48 [label="gini = 0.114\nsamples = 33\nvalue = [31, 2]"] ;
38 -> 48 ;
49 [label="gini = 0.0\nsamples = 23\nvalue = [23, 0]"] ;
37 -> 49 ;
50 [label="gini = 0.0\nsamples = 2\nvalue = [0, 2]"] ;
36 -> 50 ;
51 [label="gini = 0.465\nsamples = 38\nvalue = [24, 14]"] ;
35 -> 51 ;
52 [label="gini = 0.425\nsamples = 49\nvalue = [34, 15]"] ;
4 -> 52 ;
53 [label="gini = 0.32\nsamples = 5\nvalue = [1, 4]"] ;
3 -> 53 ;
54 [label="gini = 0.0\nsamples = 3\nvalue = [0, 3]"] ;
2 -> 54 ;
55 [label="gini = 0.459\nsamples = 42\nvalue = [15, 27]"] ;
1 -> 55 ;
56 [label="X[26] <= 0.5\ngini = 0.41\nsamples = 174\nvalue = [50, 124]"] ;
0 -> 56 [labeldistance=2.5, labelangle=-45, headlabel="False"] ;
57 [label="gini = 0.382\nsamples = 35\nvalue = [26, 9]"] ;
56 -> 57 ;
58 [label="X[0] <= 0.5\ngini = 0.286\nsamples = 139\nvalue = [24, 115]"] ;
56 -> 58 ;
59 [label="X[38] <= 0.5\ngini = 0.234\nsamples = 133\nvalue = [18, 115]"] ;
58 -> 59 ;
60 [label="X[16] <= 0.5\ngini = 0.204\nsamples = 130\nvalue = [15, 115]"] ;
59 -> 60 ;
61 [label="X[36] <= 0.5\ngini = 0.162\nsamples = 124\nvalue = [11, 113]"] ;
60 -> 61 ;
62 [label="X[54] <= 0.5\ngini = 0.137\nsamples = 122\nvalue = [9, 113]"] ;
61 -> 62 ;
63 [label="X[22] <= 0.5\ngini = 0.123\nsamples = 121\nvalue = [8, 113]"] ;
62 -> 63 ;
64 [label="X[76] <= 0.5\ngini = 0.072\nsamples = 107\nvalue = [4, 103]"] ;
63 -> 64 ;
65 [label="X[31] <= 0.5\ngini = 0.02\nsamples = 101\nvalue = [1, 100]"] ;
64 -> 65 ;
66 [label="gini = 0.0\nsamples = 99\nvalue = [0, 99]"] ;
65 -> 66 ;
67 [label="gini = 0.5\nsamples = 2\nvalue = [1, 1]"] ;
65 -> 67 ;
68 [label="gini = 0.5\nsamples = 6\nvalue = [3, 3]"] ;
64 -> 68 ;
69 [label="gini = 0.408\nsamples = 14\nvalue = [4, 10]"] ;
63 -> 69 ;
70 [label="gini = 0.0\nsamples = 1\nvalue = [1, 0]"] ;
62 -> 70 ;
71 [label="gini = 0.0\nsamples = 2\nvalue = [2, 0]"] ;
61 -> 71 ;
72 [label="gini = 0.444\nsamples = 6\nvalue = [4, 2]"] ;
60 -> 72 ;
73 [label="gini = 0.0\nsamples = 3\nvalue = [3, 0]"] ;
59 -> 73 ;
74 [label="gini = 0.0\nsamples = 6\nvalue = [6, 0]"] ;
58 -> 74 ;
}
