digraph Tree {
node [shape=box, fontname="helvetica"] ;
edge [fontname="helvetica"] ;
0 [label="X[10] <= 1.5\ngini = 0.418\nsamples = 850\nvalue = [597, 253]"] ;
1 [label="X[13] <= 1.5\ngini = 0.316\nsamples = 168\nvalue = [33, 135]"] ;
0 -> 1 [labeldistance=2.5, labelangle=45, headlabel="True"] ;
2 [label="X[3] <= 2.99\ngini = 0.159\nsamples = 138\nvalue = [12, 126]"] ;
1 -> 2 ;
3 [label="gini = 0.5\nsamples = 6\nvalue = [3, 3]"] ;
2 -> 3 ;
4 [label="X[8] <= 1.5\ngini = 0.127\nsamples = 132\nvalue = [9, 123]"] ;
2 -> 4 ;
5 [label="gini = 0.49\nsamples = 7\nvalue = [3, 4]"] ;
4 -> 5 ;
6 [label="X[3] <= 3.575\ngini = 0.091\nsamples = 125\nvalue = [6, 119]"] ;
4 -> 6 ;
7 [label="gini = 0.0\nsamples = 63\nvalue = [0, 63]"] ;
6 -> 7 ;
8 [label="X[3] <= 3.615\ngini = 0.175\nsamples = 62\nvalue = [6, 56]"] ;
6 -> 8 ;
9 [label="gini = 0.463\nsamples = 11\nvalue = [4, 7]"] ;
8 -> 9 ;
10 [label="X[1] <= 0.5\ngini = 0.075\nsamples = 51\nvalue = [2, 49]"] ;
8 -> 10 ;
11 [label="gini = 0.04\nsamples = 49\nvalue = [1, 48]"] ;
10 -> 11 ;
12 [label="gini = 0.5\nsamples = 2\nvalue = [1, 1]"] ;
10 -> 12 ;
13 [label="gini = 0.42\nsamples = 30\nvalue = [21, 9]"] ;
1 -> 13 ;
14 [label="X[8] <= 4.5\ngini = 0.286\nsamples = 682\nvalue = [564, 118]"] ;
0 -> 14 [labeldistance=2.5, labelangle=-45, headlabel="False"] ;
15 [label="X[8] <= 3.5\ngini = 0.249\nsamples = 638\nvalue = [545, 93]"] ;
14 -> 15 ;
16 [label="X[7] <= 0.5\ngini = 0.187\nsamples = 431\nvalue = [386, 45]"] ;
15 -> 16 ;
17 [label="gini = 0.458\nsamples = 31\nvalue = [20, 11]"] ;
16 -> 17 ;
18 [label="X[13] <= 1.5\ngini = 0.156\nsamples = 400\nvalue = [366, 34]"] ;
16 -> 18 ;
19 [label="X[10] <= 4.5\ngini = 0.324\nsamples = 54\nvalue = [43, 11]"] ;
18 -> 19 ;
20 [label="gini = 0.162\nsamples = 45\nvalue = [41, 4]"] ;
19 -> 20 ;
21 [label="gini = 0.346\nsamples = 9\nvalue = [2, 7]"] ;
19 -> 21 ;
22 [label="X[4] <= 1.5\ngini = 0.124\nsamples = 346\nvalue = [323, 23]"] ;
18 -> 22 ;
23 [label="X[0] <= 1.5\ngini = 0.036\nsamples = 110\nvalue = [108, 2]"] ;
22 -> 23 ;
24 [label="gini = 0.18\nsamples = 10\nvalue = [9, 1]"] ;
23 -> 24 ;
25 [label="X[3] <= 3.365\ngini = 0.02\nsamples = 100\nvalue = [99, 1]"] ;
23 -> 25 ;
26 [label="gini = 0.064\nsamples = 30\nvalue = [29, 1]"] ;
25 -> 26 ;
27 [label="gini = 0.0\nsamples = 70\nvalue = [70, 0]"] ;
25 -> 27 ;
28 [label="X[1] <= 0.5\ngini = 0.162\nsamples = 236\nvalue = [215, 21]"] ;
22 -> 28 ;
29 [label="X[8] <= 2.5\ngini = 0.144\nsamples = 231\nvalue = [213, 18]"] ;
28 -> 29 ;
30 [label="X[3] <= 3.775\ngini = 0.038\nsamples = 102\nvalue = [100, 2]"] ;
29 -> 30 ;
31 [label="gini = 0.0\nsamples = 93\nvalue = [93, 0]"] ;
30 -> 31 ;
32 [label="gini = 0.346\nsamples = 9\nvalue = [7, 2]"] ;
30 -> 32 ;
33 [label="X[0] <= 1.5\ngini = 0.217\nsamples = 129\nvalue = [113, 16]"] ;
29 -> 33 ;
34 [label="gini = 0.5\nsamples = 4\nvalue = [2, 2]"] ;
33 -> 34 ;
35 [label="X[7] <= 3.5\ngini = 0.199\nsamples = 125\nvalue = [111, 14]"] ;
33 -> 35 ;
36 [label="X[3] <= 3.64\ngini = 0.18\nsamples = 120\nvalue = [108, 12]"] ;
35 -> 36 ;
37 [label="X[10] <= 3.5\ngini = 0.139\nsamples = 93\nvalue = [86, 7]"] ;
36 -> 37 ;
38 [label="gini = 0.245\nsamples = 49\nvalue = [42, 7]"] ;
37 -> 38 ;
39 [label="gini = 0.0\nsamples = 44\nvalue = [44, 0]"] ;
37 -> 39 ;
40 [label="gini = 0.302\nsamples = 27\nvalue = [22, 5]"] ;
36 -> 40 ;
41 [label="gini = 0.48\nsamples = 5\nvalue = [3, 2]"] ;
35 -> 41 ;
42 [label="gini = 0.48\nsamples = 5\nvalue = [2, 3]"] ;
28 -> 42 ;
43 [label="X[13] <= 3.5\ngini = 0.356\nsamples = 207\nvalue = [159, 48]"] ;
15 -> 43 ;
44 [label="X[7] <= 2.5\ngini = 0.456\nsamples = 128\nvalue = [83, 45]"] ;
43 -> 44 ;
45 [label="X[3] <= 3.625\ngini = 0.422\nsamples = 106\nvalue = [74, 32]"] ;
44 -> 45 ;
46 [label="X[5] <= 0.5\ngini = 0.324\nsamples = 64\nvalue = [51, 13]"] ;
45 -> 46 ;
47 [label="X[4] <= 3.5\ngini = 0.308\nsamples = 63\nvalue = [51, 12]"] ;
46 -> 47 ;
48 [label="X[1] <= 0.5\ngini = 0.252\nsamples = 54\nvalue = [46, 8]"] ;
47 -> 48 ;
49 [label="X[3] <= 3.225\ngini = 0.229\nsamples = 53\nvalue = [46, 7]"] ;
48 -> 49 ;
50 [label="gini = 0.415\nsamples = 17\nvalue = [12, 5]"] ;
49 -> 50 ;
51 [label="gini = 0.105\nsamples = 36\nvalue = [34, 2]"] ;
49 -> 51 ;
52 [label="gini = 0.0\nsamples = 1\nvalue = [0, 1]"] ;
48 -> 52 ;
53 [label="gini = 0.494\nsamples = 9\nvalue = [5, 4]"] ;
47 -> 53 ;
54 [label="gini = 0.0\nsamples = 1\nvalue = [0, 1]"] ;
46 -> 54 ;
55 [label="gini = 0.495\nsamples = 42\nvalue = [23, 19]"] ;
45 -> 55 ;
56 [label="gini = 0.483\nsamples = 22\nvalue = [9, 13]"] ;
44 -> 56 ;
57 [label="X[0] <= 2.5\ngini = 0.073\nsamples = 79\nvalue = [76, 3]"] ;
43 -> 57 ;
58 [label="gini = 0.305\nsamples = 16\nvalue = [13, 3]"] ;
57 -> 58 ;
59 [label="gini = 0.0\nsamples = 63\nvalue = [63, 0]"] ;
57 -> 59 ;
60 [label="gini = 0.491\nsamples = 44\nvalue = [19, 25]"] ;
14 -> 60 ;
}
