digraph Tree {
node [shape=box, fontname="helvetica"] ;
edge [fontname="helvetica"] ;
0 [label="X[9] <= 0.5\ngini = 0.416\nsamples = 850\nvalue = [599, 251]"] ;
1 [label="X[2] <= 0.5\ngini = 0.372\nsamples = 687\nvalue = [517, 170]"] ;
0 -> 1 [labeldistance=2.5, labelangle=45, headlabel="True"] ;
2 [label="X[3] <= 0.5\ngini = 0.34\nsamples = 547\nvalue = [428, 119]"] ;
1 -> 2 ;
3 [label="X[4] <= 0.5\ngini = 0.319\nsamples = 472\nvalue = [378, 94]"] ;
2 -> 3 ;
4 [label="X[5] <= 0.5\ngini = 0.307\nsamples = 444\nvalue = [360, 84]"] ;
3 -> 4 ;
5 [label="X[0] <= 0.5\ngini = 0.292\nsamples = 417\nvalue = [343, 74]"] ;
4 -> 5 ;
6 [label="X[7] <= 0.5\ngini = 0.269\nsamples = 212\nvalue = [178, 34]"] ;
5 -> 6 ;
7 [label="X[6] <= 0.5\ngini = 0.312\nsamples = 150\nvalue = [121, 29]"] ;
6 -> 7 ;
8 [label="gini = 0.322\nsamples = 119\nvalue = [95, 24]"] ;
7 -> 8 ;
9 [label="gini = 0.271\nsamples = 31\nvalue = [26, 5]"] ;
7 -> 9 ;
10 [label="gini = 0.148\nsamples = 62\nvalue = [57, 5]"] ;
6 -> 10 ;
11 [label="X[8] <= 0.5\ngini = 0.314\nsamples = 205\nvalue = [165, 40]"] ;
5 -> 11 ;
12 [label="X[6] <= 0.5\ngini = 0.358\nsamples = 120\nvalue = [92, 28]"] ;
11 -> 12 ;
13 [label="gini = 0.366\nsamples = 87\nvalue = [66, 21]"] ;
12 -> 13 ;
14 [label="gini = 0.334\nsamples = 33\nvalue = [26, 7]"] ;
12 -> 14 ;
15 [label="gini = 0.242\nsamples = 85\nvalue = [73, 12]"] ;
11 -> 15 ;
16 [label="gini = 0.466\nsamples = 27\nvalue = [17, 10]"] ;
4 -> 16 ;
17 [label="gini = 0.459\nsamples = 28\nvalue = [18, 10]"] ;
3 -> 17 ;
18 [label="X[6] <= 0.5\ngini = 0.444\nsamples = 75\nvalue = [50, 25]"] ;
2 -> 18 ;
19 [label="X[8] <= 0.5\ngini = 0.421\nsamples = 63\nvalue = [44, 19]"] ;
18 -> 19 ;
20 [label="gini = 0.43\nsamples = 32\nvalue = [22, 10]"] ;
19 -> 20 ;
21 [label="gini = 0.412\nsamples = 31\nvalue = [22, 9]"] ;
19 -> 21 ;
22 [label="gini = 0.5\nsamples = 12\nvalue = [6, 6]"] ;
18 -> 22 ;
23 [label="X[8] <= 0.5\ngini = 0.463\nsamples = 140\nvalue = [89, 51]"] ;
1 -> 23 ;
24 [label="X[7] <= 0.5\ngini = 0.498\nsamples = 70\nvalue = [37, 33]"] ;
23 -> 24 ;
25 [label="gini = 0.415\nsamples = 17\nvalue = [5, 12]"] ;
24 -> 25 ;
26 [label="gini = 0.478\nsamples = 53\nvalue = [32, 21]"] ;
24 -> 26 ;
27 [label="gini = 0.382\nsamples = 70\nvalue = [52, 18]"] ;
23 -> 27 ;
28 [label="X[3] <= 0.5\ngini = 0.5\nsamples = 163\nvalue = [82, 81]"] ;
0 -> 28 [labeldistance=2.5, labelangle=-45, headlabel="False"] ;
29 [label="X[4] <= 0.5\ngini = 0.494\nsamples = 139\nvalue = [77, 62]"] ;
28 -> 29 ;
30 [label="X[1] <= 0.5\ngini = 0.488\nsamples = 130\nvalue = [75, 55]"] ;
29 -> 30 ;
31 [label="X[0] <= 0.5\ngini = 0.488\nsamples = 90\nvalue = [52, 38]"] ;
30 -> 31 ;
32 [label="gini = 0.488\nsamples = 45\nvalue = [26, 19]"] ;
31 -> 32 ;
33 [label="gini = 0.488\nsamples = 45\nvalue = [26, 19]"] ;
31 -> 33 ;
34 [label="gini = 0.489\nsamples = 40\nvalue = [23, 17]"] ;
30 -> 34 ;
35 [label="gini = 0.346\nsamples = 9\nvalue = [2, 7]"] ;
29 -> 35 ;
36 [label="gini = 0.33\nsamples = 24\nvalue = [5, 19]"] ;
28 -> 36 ;
}
