digraph Tree {
node [shape=box, fontname="helvetica"] ;
edge [fontname="helvetica"] ;
0 [label="X[5] <= 3.5\ngini = 0.431\nsamples = 850\nvalue = [583, 267]"] ;
1 [label="X[1] <= 1.5\ngini = 0.376\nsamples = 499\nvalue = [374, 125]"] ;
0 -> 1 [labeldistance=2.5, labelangle=45, headlabel="True"] ;
2 [label="gini = 0.499\nsamples = 31\nvalue = [16, 15]"] ;
1 -> 2 ;
3 [label="X[6] <= 0.5\ngini = 0.36\nsamples = 468\nvalue = [358, 110]"] ;
1 -> 3 ;
4 [label="X[2] <= 1.5\ngini = 0.346\nsamples = 445\nvalue = [346, 99]"] ;
3 -> 4 ;
5 [label="X[8] <= 2.5\ngini = 0.296\nsamples = 233\nvalue = [191, 42]"] ;
4 -> 5 ;
6 [label="X[5] <= 2.5\ngini = 0.237\nsamples = 153\nvalue = [132, 21]"] ;
5 -> 6 ;
7 [label="X[2] <= 0.5\ngini = 0.326\nsamples = 78\nvalue = [62, 16]"] ;
6 -> 7 ;
8 [label="gini = 0.0\nsamples = 14\nvalue = [14, 0]"] ;
7 -> 8 ;
9 [label="X[1] <= 2.5\ngini = 0.375\nsamples = 64\nvalue = [48, 16]"] ;
7 -> 9 ;
10 [label="gini = 0.5\nsamples = 10\nvalue = [5, 5]"] ;
9 -> 10 ;
11 [label="X[7] <= 4.5\ngini = 0.324\nsamples = 54\nvalue = [43, 11]"] ;
9 -> 11 ;
12 [label="gini = 0.273\nsamples = 49\nvalue = [41, 8]"] ;
11 -> 12 ;
13 [label="gini = 0.48\nsamples = 5\nvalue = [2, 3]"] ;
11 -> 13 ;
14 [label="X[2] <= 0.5\ngini = 0.124\nsamples = 75\nvalue = [70, 5]"] ;
6 -> 14 ;
15 [label="gini = 0.291\nsamples = 17\nvalue = [14, 3]"] ;
14 -> 15 ;
16 [label="X[8] <= 1.5\ngini = 0.067\nsamples = 58\nvalue = [56, 2]"] ;
14 -> 16 ;
17 [label="gini = 0.0\nsamples = 21\nvalue = [21, 0]"] ;
16 -> 17 ;
18 [label="gini = 0.102\nsamples = 37\nvalue = [35, 2]"] ;
16 -> 18 ;
19 [label="X[1] <= 2.5\ngini = 0.387\nsamples = 80\nvalue = [59, 21]"] ;
5 -> 19 ;
20 [label="gini = 0.0\nsamples = 11\nvalue = [11, 0]"] ;
19 -> 20 ;
21 [label="X[4] <= 0.5\ngini = 0.423\nsamples = 69\nvalue = [48, 21]"] ;
19 -> 21 ;
22 [label="X[2] <= 0.5\ngini = 0.471\nsamples = 50\nvalue = [31, 19]"] ;
21 -> 22 ;
23 [label="gini = 0.408\nsamples = 7\nvalue = [2, 5]"] ;
22 -> 23 ;
24 [label="gini = 0.439\nsamples = 43\nvalue = [29, 14]"] ;
22 -> 24 ;
25 [label="gini = 0.188\nsamples = 19\nvalue = [17, 2]"] ;
21 -> 25 ;
26 [label="X[1] <= 2.5\ngini = 0.393\nsamples = 212\nvalue = [155, 57]"] ;
4 -> 26 ;
27 [label="gini = 0.486\nsamples = 12\nvalue = [5, 7]"] ;
26 -> 27 ;
28 [label="X[1] <= 3.5\ngini = 0.375\nsamples = 200\nvalue = [150, 50]"] ;
26 -> 28 ;
29 [label="X[8] <= 3.5\ngini = 0.301\nsamples = 92\nvalue = [75, 17]"] ;
28 -> 29 ;
30 [label="X[7] <= 1.5\ngini = 0.226\nsamples = 77\nvalue = [67, 10]"] ;
29 -> 30 ;
31 [label="gini = 0.0\nsamples = 1\nvalue = [0, 1]"] ;
30 -> 31 ;
32 [label="X[7] <= 2.5\ngini = 0.209\nsamples = 76\nvalue = [67, 9]"] ;
30 -> 32 ;
33 [label="gini = 0.0\nsamples = 14\nvalue = [14, 0]"] ;
32 -> 33 ;
34 [label="X[7] <= 3.5\ngini = 0.248\nsamples = 62\nvalue = [53, 9]"] ;
32 -> 34 ;
35 [label="gini = 0.35\nsamples = 31\nvalue = [24, 7]"] ;
34 -> 35 ;
36 [label="gini = 0.121\nsamples = 31\nvalue = [29, 2]"] ;
34 -> 36 ;
37 [label="gini = 0.498\nsamples = 15\nvalue = [8, 7]"] ;
29 -> 37 ;
38 [label="X[8] <= 2.5\ngini = 0.424\nsamples = 108\nvalue = [75, 33]"] ;
28 -> 38 ;
39 [label="X[1] <= 4.5\ngini = 0.45\nsamples = 85\nvalue = [56, 29]"] ;
38 -> 39 ;
40 [label="X[2] <= 2.5\ngini = 0.412\nsamples = 62\nvalue = [44, 18]"] ;
39 -> 40 ;
41 [label="gini = 0.332\nsamples = 38\nvalue = [30, 8]"] ;
40 -> 41 ;
42 [label="gini = 0.486\nsamples = 24\nvalue = [14, 10]"] ;
40 -> 42 ;
43 [label="gini = 0.499\nsamples = 23\nvalue = [12, 11]"] ;
39 -> 43 ;
44 [label="gini = 0.287\nsamples = 23\nvalue = [19, 4]"] ;
38 -> 44 ;
45 [label="gini = 0.499\nsamples = 23\nvalue = [12, 11]"] ;
3 -> 45 ;
46 [label="X[8] <= 2.5\ngini = 0.482\nsamples = 351\nvalue = [209, 142]"] ;
0 -> 46 [labeldistance=2.5, labelangle=-45, headlabel="False"] ;
47 [label="X[2] <= 0.5\ngini = 0.423\nsamples = 201\nvalue = [140, 61]"] ;
46 -> 47 ;
48 [label="gini = 0.401\nsamples = 18\nvalue = [5, 13]"] ;
47 -> 48 ;
49 [label="X[1] <= 4.5\ngini = 0.387\nsamples = 183\nvalue = [135, 48]"] ;
47 -> 49 ;
50 [label="X[2] <= 2.5\ngini = 0.32\nsamples = 140\nvalue = [112, 28]"] ;
49 -> 50 ;
51 [label="X[6] <= 0.5\ngini = 0.29\nsamples = 125\nvalue = [103, 22]"] ;
50 -> 51 ;
52 [label="X[1] <= 2.5\ngini = 0.274\nsamples = 122\nvalue = [102, 20]"] ;
51 -> 52 ;
53 [label="gini = 0.444\nsamples = 12\nvalue = [8, 4]"] ;
52 -> 53 ;
54 [label="X[8] <= 1.5\ngini = 0.249\nsamples = 110\nvalue = [94, 16]"] ;
52 -> 54 ;
55 [label="gini = 0.314\nsamples = 41\nvalue = [33, 8]"] ;
54 -> 55 ;
56 [label="X[7] <= 3.5\ngini = 0.205\nsamples = 69\nvalue = [61, 8]"] ;
54 -> 56 ;
57 [label="gini = 0.0\nsamples = 20\nvalue = [20, 0]"] ;
56 -> 57 ;
58 [label="gini = 0.273\nsamples = 49\nvalue = [41, 8]"] ;
56 -> 58 ;
59 [label="gini = 0.444\nsamples = 3\nvalue = [1, 2]"] ;
51 -> 59 ;
60 [label="gini = 0.48\nsamples = 15\nvalue = [9, 6]"] ;
50 -> 60 ;
61 [label="gini = 0.498\nsamples = 43\nvalue = [23, 20]"] ;
49 -> 61 ;
62 [label="X[8] <= 4.5\ngini = 0.497\nsamples = 150\nvalue = [69, 81]"] ;
46 -> 62 ;
63 [label="X[2] <= 2.5\ngini = 0.485\nsamples = 131\nvalue = [54, 77]"] ;
62 -> 63 ;
64 [label="X[1] <= 3.5\ngini = 0.463\nsamples = 110\nvalue = [40, 70]"] ;
63 -> 64 ;
65 [label="gini = 0.343\nsamples = 41\nvalue = [9, 32]"] ;
64 -> 65 ;
66 [label="X[1] <= 4.5\ngini = 0.495\nsamples = 69\nvalue = [31, 38]"] ;
64 -> 66 ;
67 [label="gini = 0.428\nsamples = 29\nvalue = [20, 9]"] ;
66 -> 67 ;
68 [label="gini = 0.399\nsamples = 40\nvalue = [11, 29]"] ;
66 -> 68 ;
69 [label="gini = 0.444\nsamples = 21\nvalue = [14, 7]"] ;
63 -> 69 ;
70 [label="gini = 0.332\nsamples = 19\nvalue = [15, 4]"] ;
62 -> 70 ;
}
