digraph Tree {
node [shape=box, fontname="helvetica"] ;
edge [fontname="helvetica"] ;
0 [label="X[15] <= 0.5\ngini = 0.433\nsamples = 964\nvalue = [659, 305]"] ;
1 [label="X[23] <= 0.5\ngini = 0.285\nsamples = 687\nvalue = [569, 118]"] ;
0 -> 1 [labeldistance=2.5, labelangle=45, headlabel="True"] ;
2 [label="X[41] <= 0.5\ngini = 0.254\nsamples = 603\nvalue = [513, 90]"] ;
1 -> 2 ;
3 [label="X[18] <= 0.5\ngini = 0.228\nsamples = 549\nvalue = [477, 72]"] ;
2 -> 3 ;
4 [label="X[33] <= 0.5\ngini = 0.276\nsamples = 393\nvalue = [328, 65]"] ;
3 -> 4 ;
5 [label="X[13] <= 0.5\ngini = 0.313\nsamples = 309\nvalue = [249, 60]"] ;
4 -> 5 ;
6 [label="X[4] <= 0.5\ngini = 0.385\nsamples = 154\nvalue = [114, 40]"] ;
5 -> 6 ;
7 [label="X[46] <= 0.5\ngini = 0.338\nsamples = 130\nvalue = [102, 28]"] ;
6 -> 7 ;
8 [label="X[25] <= 0.5\ngini = 0.301\nsamples = 119\nvalue = [97, 22]"] ;
7 -> 8 ;
9 [label="X[14] <= 0.5\ngini = 0.293\nsamples = 118\nvalue = [97, 21]"] ;
8 -> 9 ;
10 [label="X[9] <= 0.5\ngini = 0.327\nsamples = 102\nvalue = [81, 21]"] ;
9 -> 10 ;
11 [label="X[22] <= 0.5\ngini = 0.231\nsamples = 75\nvalue = [65, 10]"] ;
10 -> 11 ;
12 [label="X[39] <= 0.5\ngini = 0.158\nsamples = 58\nvalue = [53, 5]"] ;
11 -> 12 ;
13 [label="gini = 0.046\nsamples = 42\nvalue = [41, 1]"] ;
12 -> 13 ;
14 [label="gini = 0.375\nsamples = 16\nvalue = [12, 4]"] ;
12 -> 14 ;
15 [label="gini = 0.415\nsamples = 17\nvalue = [12, 5]"] ;
11 -> 15 ;
16 [label="gini = 0.483\nsamples = 27\nvalue = [16, 11]"] ;
10 -> 16 ;
17 [label="gini = 0.0\nsamples = 16\nvalue = [16, 0]"] ;
9 -> 17 ;
18 [label="gini = 0.0\nsamples = 1\nvalue = [0, 1]"] ;
8 -> 18 ;
19 [label="gini = 0.496\nsamples = 11\nvalue = [5, 6]"] ;
7 -> 19 ;
20 [label="gini = 0.5\nsamples = 24\nvalue = [12, 12]"] ;
6 -> 20 ;
21 [label="X[40] <= 0.5\ngini = 0.225\nsamples = 155\nvalue = [135, 20]"] ;
5 -> 21 ;
22 [label="X[36] <= 0.5\ngini = 0.07\nsamples = 83\nvalue = [80, 3]"] ;
21 -> 22 ;
23 [label="gini = 0.0\nsamples = 77\nvalue = [77, 0]"] ;
22 -> 23 ;
24 [label="gini = 0.5\nsamples = 6\nvalue = [3, 3]"] ;
22 -> 24 ;
25 [label="X[42] <= 0.5\ngini = 0.361\nsamples = 72\nvalue = [55, 17]"] ;
21 -> 25 ;
26 [label="X[9] <= 0.5\ngini = 0.323\nsamples = 69\nvalue = [55, 14]"] ;
25 -> 26 ;
27 [label="gini = 0.408\nsamples = 49\nvalue = [35, 14]"] ;
26 -> 27 ;
28 [label="gini = 0.0\nsamples = 20\nvalue = [20, 0]"] ;
26 -> 28 ;
29 [label="gini = 0.0\nsamples = 3\nvalue = [0, 3]"] ;
25 -> 29 ;
30 [label="X[45] <= 0.5\ngini = 0.112\nsamples = 84\nvalue = [79, 5]"] ;
4 -> 30 ;
31 [label="X[6] <= 0.5\ngini = 0.093\nsamples = 82\nvalue = [78, 4]"] ;
30 -> 31 ;
32 [label="X[25] <= 0.5\ngini = 0.073\nsamples = 79\nvalue = [76, 3]"] ;
31 -> 32 ;
33 [label="X[14] <= 0.5\ngini = 0.051\nsamples = 76\nvalue = [74, 2]"] ;
32 -> 33 ;
34 [label="gini = 0.0\nsamples = 63\nvalue = [63, 0]"] ;
33 -> 34 ;
35 [label="gini = 0.26\nsamples = 13\nvalue = [11, 2]"] ;
33 -> 35 ;
36 [label="gini = 0.444\nsamples = 3\nvalue = [2, 1]"] ;
32 -> 36 ;
37 [label="gini = 0.444\nsamples = 3\nvalue = [2, 1]"] ;
31 -> 37 ;
38 [label="gini = 0.5\nsamples = 2\nvalue = [1, 1]"] ;
30 -> 38 ;
39 [label="X[38] <= 0.5\ngini = 0.086\nsamples = 156\nvalue = [149, 7]"] ;
3 -> 39 ;
40 [label="X[32] <= 0.5\ngini = 0.053\nsamples = 111\nvalue = [108, 3]"] ;
39 -> 40 ;
41 [label="X[35] <= 0.5\ngini = 0.037\nsamples = 107\nvalue = [105, 2]"] ;
40 -> 41 ;
42 [label="X[14] <= 0.5\ngini = 0.02\nsamples = 100\nvalue = [99, 1]"] ;
41 -> 42 ;
43 [label="gini = 0.0\nsamples = 86\nvalue = [86, 0]"] ;
42 -> 43 ;
44 [label="gini = 0.133\nsamples = 14\nvalue = [13, 1]"] ;
42 -> 44 ;
45 [label="gini = 0.245\nsamples = 7\nvalue = [6, 1]"] ;
41 -> 45 ;
46 [label="gini = 0.375\nsamples = 4\nvalue = [3, 1]"] ;
40 -> 46 ;
47 [label="gini = 0.162\nsamples = 45\nvalue = [41, 4]"] ;
39 -> 47 ;
48 [label="X[13] <= 0.5\ngini = 0.444\nsamples = 54\nvalue = [36, 18]"] ;
2 -> 48 ;
49 [label="gini = 0.5\nsamples = 33\nvalue = [17, 16]"] ;
48 -> 49 ;
50 [label="gini = 0.172\nsamples = 21\nvalue = [19, 2]"] ;
48 -> 50 ;
51 [label="X[40] <= 0.5\ngini = 0.444\nsamples = 84\nvalue = [56, 28]"] ;
1 -> 51 ;
52 [label="X[37] <= 0.5\ngini = 0.324\nsamples = 54\nvalue = [43, 11]"] ;
51 -> 52 ;
53 [label="gini = 0.245\nsamples = 49\nvalue = [42, 7]"] ;
52 -> 53 ;
54 [label="gini = 0.32\nsamples = 5\nvalue = [1, 4]"] ;
52 -> 54 ;
55 [label="gini = 0.491\nsamples = 30\nvalue = [13, 17]"] ;
51 -> 55 ;
56 [label="X[4] <= 0.5\ngini = 0.439\nsamples = 277\nvalue = [90, 187]"] ;
0 -> 56 [labeldistance=2.5, labelangle=-45, headlabel="False"] ;
57 [label="X[9] <= 0.5\ngini = 0.482\nsamples = 208\nvalue = [84, 124]"] ;
56 -> 57 ;
58 [label="X[36] <= 0.5\ngini = 0.499\nsamples = 158\nvalue = [75, 83]"] ;
57 -> 58 ;
59 [label="X[29] <= 0.5\ngini = 0.499\nsamples = 136\nvalue = [71, 65]"] ;
58 -> 59 ;
60 [label="gini = 0.425\nsamples = 49\nvalue = [34, 15]"] ;
59 -> 60 ;
61 [label="X[1] <= 0.5\ngini = 0.489\nsamples = 87\nvalue = [37, 50]"] ;
59 -> 61 ;
62 [label="X[42] <= 0.5\ngini = 0.472\nsamples = 76\nvalue = [29, 47]"] ;
61 -> 62 ;
63 [label="X[3] <= 0.5\ngini = 0.493\nsamples = 66\nvalue = [29, 37]"] ;
62 -> 63 ;
64 [label="gini = 0.444\nsamples = 39\nvalue = [13, 26]"] ;
63 -> 64 ;
65 [label="gini = 0.483\nsamples = 27\nvalue = [16, 11]"] ;
63 -> 65 ;
66 [label="gini = 0.0\nsamples = 10\nvalue = [0, 10]"] ;
62 -> 66 ;
67 [label="gini = 0.397\nsamples = 11\nvalue = [8, 3]"] ;
61 -> 67 ;
68 [label="gini = 0.298\nsamples = 22\nvalue = [4, 18]"] ;
58 -> 68 ;
69 [label="X[33] <= 0.5\ngini = 0.295\nsamples = 50\nvalue = [9, 41]"] ;
57 -> 69 ;
70 [label="gini = 0.059\nsamples = 33\nvalue = [1, 32]"] ;
69 -> 70 ;
71 [label="gini = 0.498\nsamples = 17\nvalue = [8, 9]"] ;
69 -> 71 ;
72 [label="X[31] <= 0.5\ngini = 0.159\nsamples = 69\nvalue = [6, 63]"] ;
56 -> 72 ;
73 [label="gini = 0.042\nsamples = 47\nvalue = [1, 46]"] ;
72 -> 73 ;
74 [label="gini = 0.351\nsamples = 22\nvalue = [5, 17]"] ;
72 -> 74 ;
}
