digraph Tree {
node [shape=box, fontname="helvetica"] ;
edge [fontname="helvetica"] ;
0 [label="X[4] <= 1.5\ngini = 0.418\nsamples = 964\nvalue = [677, 287]"] ;
1 [label="X[5] <= 1.5\ngini = 0.385\nsamples = 204\nvalue = [53, 151]"] ;
0 -> 1 [labeldistance=2.5, labelangle=45, headlabel="True"] ;
2 [label="X[1] <= 1.5\ngini = 0.24\nsamples = 165\nvalue = [23, 142]"] ;
1 -> 2 ;
3 [label="gini = 0.219\nsamples = 8\nvalue = [7, 1]"] ;
2 -> 3 ;
4 [label="X[2] <= 2.5\ngini = 0.183\nsamples = 157\nvalue = [16, 141]"] ;
2 -> 4 ;
5 [label="gini = 0.408\nsamples = 42\nvalue = [12, 30]"] ;
4 -> 5 ;
6 [label="X[8] <= 2.65\ngini = 0.067\nsamples = 115\nvalue = [4, 111]"] ;
4 -> 6 ;
7 [label="gini = 0.0\nsamples = 1\nvalue = [1, 0]"] ;
6 -> 7 ;
8 [label="X[30] <= 0.5\ngini = 0.051\nsamples = 114\nvalue = [3, 111]"] ;
6 -> 8 ;
9 [label="gini = 0.198\nsamples = 27\nvalue = [3, 24]"] ;
8 -> 9 ;
10 [label="gini = 0.0\nsamples = 87\nvalue = [0, 87]"] ;
8 -> 10 ;
11 [label="gini = 0.355\nsamples = 39\nvalue = [30, 9]"] ;
1 -> 11 ;
12 [label="X[0] <= 3.5\ngini = 0.294\nsamples = 760\nvalue = [624, 136]"] ;
0 -> 12 [labeldistance=2.5, labelangle=-45, headlabel="False"] ;
13 [label="X[9] <= 0.5\ngini = 0.208\nsamples = 491\nvalue = [433, 58]"] ;
12 -> 13 ;
14 [label="gini = 0.4\nsamples = 47\nvalue = [34, 13]"] ;
13 -> 14 ;
15 [label="X[35] <= 0.5\ngini = 0.182\nsamples = 444\nvalue = [399, 45]"] ;
13 -> 15 ;
16 [label="X[19] <= 0.5\ngini = 0.155\nsamples = 354\nvalue = [324, 30]"] ;
15 -> 16 ;
17 [label="X[1] <= 2.5\ngini = 0.22\nsamples = 135\nvalue = [118, 17]"] ;
16 -> 17 ;
18 [label="gini = 0.408\nsamples = 14\nvalue = [10, 4]"] ;
17 -> 18 ;
19 [label="X[33] <= 0.5\ngini = 0.192\nsamples = 121\nvalue = [108, 13]"] ;
17 -> 19 ;
20 [label="X[26] <= 0.5\ngini = 0.172\nsamples = 116\nvalue = [105, 11]"] ;
19 -> 20 ;
21 [label="X[13] <= 0.5\ngini = 0.152\nsamples = 109\nvalue = [100, 9]"] ;
20 -> 21 ;
22 [label="X[8] <= 3.975\ngini = 0.191\nsamples = 84\nvalue = [75, 9]"] ;
21 -> 22 ;
23 [label="X[37] <= 0.5\ngini = 0.176\nsamples = 82\nvalue = [74, 8]"] ;
22 -> 23 ;
24 [label="X[8] <= 3.69\ngini = 0.107\nsamples = 53\nvalue = [50, 3]"] ;
23 -> 24 ;
25 [label="gini = 0.049\nsamples = 40\nvalue = [39, 1]"] ;
24 -> 25 ;
26 [label="gini = 0.26\nsamples = 13\nvalue = [11, 2]"] ;
24 -> 26 ;
27 [label="gini = 0.285\nsamples = 29\nvalue = [24, 5]"] ;
23 -> 27 ;
28 [label="gini = 0.5\nsamples = 2\nvalue = [1, 1]"] ;
22 -> 28 ;
29 [label="gini = 0.0\nsamples = 25\nvalue = [25, 0]"] ;
21 -> 29 ;
30 [label="gini = 0.408\nsamples = 7\nvalue = [5, 2]"] ;
20 -> 30 ;
31 [label="gini = 0.48\nsamples = 5\nvalue = [3, 2]"] ;
19 -> 31 ;
32 [label="X[12] <= 0.5\ngini = 0.112\nsamples = 219\nvalue = [206, 13]"] ;
16 -> 32 ;
33 [label="X[8] <= 3.575\ngini = 0.099\nsamples = 211\nvalue = [200, 11]"] ;
32 -> 33 ;
34 [label="X[14] <= 0.5\ngini = 0.036\nsamples = 110\nvalue = [108, 2]"] ;
33 -> 34 ;
35 [label="X[28] <= 0.5\ngini = 0.019\nsamples = 107\nvalue = [106, 1]"] ;
34 -> 35 ;
36 [label="gini = 0.0\nsamples = 100\nvalue = [100, 0]"] ;
35 -> 36 ;
37 [label="gini = 0.245\nsamples = 7\nvalue = [6, 1]"] ;
35 -> 37 ;
38 [label="gini = 0.444\nsamples = 3\nvalue = [2, 1]"] ;
34 -> 38 ;
39 [label="X[22] <= 0.5\ngini = 0.162\nsamples = 101\nvalue = [92, 9]"] ;
33 -> 39 ;
40 [label="X[2] <= 2.5\ngini = 0.124\nsamples = 90\nvalue = [84, 6]"] ;
39 -> 40 ;
41 [label="gini = 0.375\nsamples = 12\nvalue = [9, 3]"] ;
40 -> 41 ;
42 [label="X[37] <= 0.5\ngini = 0.074\nsamples = 78\nvalue = [75, 3]"] ;
40 -> 42 ;
43 [label="gini = 0.0\nsamples = 47\nvalue = [47, 0]"] ;
42 -> 43 ;
44 [label="gini = 0.175\nsamples = 31\nvalue = [28, 3]"] ;
42 -> 44 ;
45 [label="gini = 0.397\nsamples = 11\nvalue = [8, 3]"] ;
39 -> 45 ;
46 [label="gini = 0.375\nsamples = 8\nvalue = [6, 2]"] ;
32 -> 46 ;
47 [label="X[19] <= 0.5\ngini = 0.278\nsamples = 90\nvalue = [75, 15]"] ;
15 -> 47 ;
48 [label="gini = 0.108\nsamples = 35\nvalue = [33, 2]"] ;
47 -> 48 ;
49 [label="X[32] <= 0.5\ngini = 0.361\nsamples = 55\nvalue = [42, 13]"] ;
47 -> 49 ;
50 [label="gini = 0.273\nsamples = 43\nvalue = [36, 7]"] ;
49 -> 50 ;
51 [label="gini = 0.5\nsamples = 12\nvalue = [6, 6]"] ;
49 -> 51 ;
52 [label="X[4] <= 3.5\ngini = 0.412\nsamples = 269\nvalue = [191, 78]"] ;
12 -> 52 ;
53 [label="X[5] <= 2.5\ngini = 0.478\nsamples = 157\nvalue = [95, 62]"] ;
52 -> 53 ;
54 [label="X[34] <= 0.5\ngini = 0.488\nsamples = 59\nvalue = [25, 34]"] ;
53 -> 54 ;
55 [label="gini = 0.444\nsamples = 45\nvalue = [15, 30]"] ;
54 -> 55 ;
56 [label="gini = 0.408\nsamples = 14\nvalue = [10, 4]"] ;
54 -> 56 ;
57 [label="X[22] <= 0.5\ngini = 0.408\nsamples = 98\nvalue = [70, 28]"] ;
53 -> 57 ;
58 [label="X[37] <= 0.5\ngini = 0.378\nsamples = 87\nvalue = [65, 22]"] ;
57 -> 58 ;
59 [label="X[8] <= 3.32\ngini = 0.323\nsamples = 69\nvalue = [55, 14]"] ;
58 -> 59 ;
60 [label="gini = 0.472\nsamples = 21\nvalue = [13, 8]"] ;
59 -> 60 ;
61 [label="gini = 0.219\nsamples = 48\nvalue = [42, 6]"] ;
59 -> 61 ;
62 [label="gini = 0.494\nsamples = 18\nvalue = [10, 8]"] ;
58 -> 62 ;
63 [label="gini = 0.496\nsamples = 11\nvalue = [5, 6]"] ;
57 -> 63 ;
64 [label="X[5] <= 1.5\ngini = 0.245\nsamples = 112\nvalue = [96, 16]"] ;
52 -> 64 ;
65 [label="gini = 0.473\nsamples = 13\nvalue = [8, 5]"] ;
64 -> 65 ;
66 [label="X[3] <= 4.5\ngini = 0.198\nsamples = 99\nvalue = [88, 11]"] ;
64 -> 66 ;
67 [label="X[7] <= 2.5\ngini = 0.126\nsamples = 74\nvalue = [69, 5]"] ;
66 -> 67 ;
68 [label="gini = 0.0\nsamples = 43\nvalue = [43, 0]"] ;
67 -> 68 ;
69 [label="gini = 0.271\nsamples = 31\nvalue = [26, 5]"] ;
67 -> 69 ;
70 [label="gini = 0.365\nsamples = 25\nvalue = [19, 6]"] ;
66 -> 70 ;
}
